\data\
ngram 1=43
ngram 2=1543

\1-grams:
-3.0227401	<unk>	0
0	<s>	-2.1384232
-1.5976992	</s>	0
-1.5866939	f	-1.8411616
-1.5759605	ao	-1.9275181
-1.5866939	r	-2.2398405
-1.5976992	dh	-2.170033
-1.5759605	ah	-2.3385966
-1.5976992	t	-2.1865222
-1.5866939	w	-2.0627568
-1.5759605	eh	-2.0801337
-1.5866939	n	-2.3667157
-1.5976992	iy	-2.2632456
-1.5759605	ih	-2.5138004
-1.6205837	th	-1.3225659
-1.6324944	ay	-1.824304
-1.5866939	m	-2.0601556
-1.5866939	ae	-2.0892613
-1.6205837	v	-1.7628431
-1.827313	ng	-1.619724
-1.5976992	k	-2.0822265
-1.6837009	uw	-1.8068844
-1.6089907	sh	-1.770506
-1.7265031	uh	-1.3430656
-1.5976992	hh	-2.0447943
-1.5866939	s	-2.2995138
-1.5759605	l	-2.2399106
-1.5976992	g	-1.7472371
-1.5866939	aa	-1.9048022
-1.5976992	d	-2.0947187
-1.6205837	b	-1.8433613
-1.5976992	ow	-1.7630088
-1.5976992	p	-1.8748908
-1.5759605	er	-2.1208987
-1.5866939	y	-2.0320992
-1.5976992	z	-1.9822772
-1.5976992	ey	-1.8208618
-1.6324944	jh	-1.4809344
-1.6324944	aw	-1.359468
-1.6324944	ch	-1.3808656
-1.6324944	err	-0.42917854
-1.757577	zh	-0.8386893
-1.7265031	oy	-1.3458401

\2-grams:
-1.6029686	f </s>
-2.408747	ao </s>
-1.9656084	r </s>
-3.6354191	dh </s>
-1.9639258	ah </s>
-1.1963332	t </s>
-2.5912492	w </s>
-2.1032562	eh </s>
-1.3560629	n </s>
-1.4179085	iy </s>
-2.02516	ih </s>
-1.564762	th </s>
-1.7455391	ay </s>
-1.3130556	m </s>
-1.1507411	ae </s>
-2.019015	v </s>
-1.0442472	ng </s>
-1.6661091	k </s>
-1.5050822	uw </s>
-2.0681803	sh </s>
-2.1764233	uh </s>
-2.558823	hh </s>
-1.091027	s </s>
-1.540209	l </s>
-2.253865	g </s>
-2.3892004	aa </s>
-1.3204821	d </s>
-2.3745542	b </s>
-1.6174207	ow </s>
-1.8025383	p </s>
-0.9126249	er </s>
-0.9825668	z </s>
-1.6229573	ey </s>
-1.3332887	jh </s>
-1.3382502	aw </s>
-1.4148395	ch </s>
-1.6781927	err </s>
-1.4156874	zh </s>
-2.7882285	oy </s>
-1.8756363	<s> f
-2.8733642	f f
-1.5652952	ao f
-2.082208	r f
-3.1627767	dh f
-1.4075567	ah f
-1.8734415	t f
-2.846636	w f
-1.9013441	eh f
-1.68463	n f
-1.6667676	iy f
-1.6731868	ih f
-1.4849011	th f
-1.5510719	ay f
-1.7529632	m f
-1.5410227	ae f
-1.9413656	v f
-1.539188	ng f
-2.2316089	k f
-1.7568216	uw f
-2.1926827	sh f
-1.6503257	uh f
-3.4195347	hh f
-1.7160168	s f
-1.6027867	l f
-2.4538732	g f
-1.7912781	aa f
-1.7071157	d f
-3.3071852	b f
-1.985089	ow f
-2.7143598	p f
-1.4726653	er f
-1.4280766	z f
-1.7507744	ey f
-2.3127754	jh f
-1.8101262	aw f
-1.8053637	ch f
-1.4132706	err f
-2.2837307	zh f
-2.7805028	oy f
-2.1689503	<s> ao
-0.92610097	f ao
-2.450479	ao ao
-1.747813	r ao
-2.2040753	dh ao
-2.446061	ah ao
-1.7969972	t ao
-0.73947203	w ao
-3.532594	eh ao
-1.7440976	n ao
-2.194407	iy ao
-3.0126884	ih ao
-1.4742607	th ao
-1.95572	ay ao
-1.4029356	m ao
-3.3894017	ae ao
-1.8263487	v ao
-1.9715273	ng ao
-1.5043386	k ao
-1.8910434	uw ao
-1.6532546	sh ao
-2.1726048	uh ao
-1.7398634	hh ao
-1.8291547	s ao
-1.635355	l ao
-1.7169212	g ao
-2.6677856	aa ao
-1.7762598	d ao
-1.4653478	b ao
-1.8515819	ow ao
-1.6084156	p ao
-1.135086	er ao
-1.8113521	y ao
-1.876079	z ao
-2.1226609	ey ao
-1.8651621	jh ao
-1.9563372	aw ao
-2.0383916	ch ao
-1.6683183	err ao
-1.9822466	zh ao
-2.1410117	oy ao
-1.8120719	<s> r
-1.0424505	f r
-0.58344996	ao r
-2.753866	r r
-3.2447743	dh r
-1.8217204	ah r
-1.0520408	t r
-2.846636	w r
-0.8043753	eh r
-2.0343509	n r
-1.304435	iy r
-1.5973237	ih r
-0.93428856	th r
-1.7183263	ay r
-2.4046082	m r
-1.9795015	ae r
-1.3007709	v r
-1.712606	ng r
-1.324333	k r
-1.8464679	uw r
-1.9599081	sh r
-1.0613284	uh r
-3.2745683	hh r
-2.1301289	s r
-2.0564072	l r
-0.50952506	g r
-0.5116332	aa r
-1.3674657	d r
-1.0457304	b r
-2.1781082	ow r
-0.8164441	p r
-1.4937038	er r
-1.7500762	z r
-2.1094103	ey r
-2.3127754	jh r
-1.7517608	aw r
-1.9304076	ch r
-1.4132706	err r
-1.6657293	zh r
-2.7805028	oy r
-0.7996431	<s> dh
-2.1611748	f dh
-0.9457143	ao dh
-1.6241177	r dh
-3.2481306	dh dh
-1.4543875	ah dh
-2.095739	t dh
-3.4866922	w dh
-1.3804787	eh dh
-1.553355	n dh
-1.3179377	iy dh
-1.4796	ih dh
-2.2702732	th dh
-0.8651869	ay dh
-1.798878	m dh
-1.4879638	ae dh
-1.2653903	v dh
-1.5218985	ng dh
-1.5097094	k dh
-1.1071829	uw dh
-2.7992039	sh dh
-1.0005773	uh dh
-1.9646221	s dh
-1.9824206	l dh
-2.7614565	g dh
-1.2390752	aa dh
-2.2104924	d dh
-3.03945	b dh
-1.5678488	ow dh
-2.4125977	p dh
-1.4348193	er dh
-1.625277	z dh
-1.0993223	ey dh
-2.188002	jh dh
-1.1215416	aw dh
-1.8855067	ch dh
-1.3272831	err dh
-1.9901526	zh dh
-1.7533724	oy dh
-1.4661696	<s> ah
-1.1910808	f ah
-1.9812673	ao ah
-1.2273958	r ah
-0.6666012	dh ah
-2.6761043	ah ah
-0.995996	t ah
-0.7252786	w ah
-2.3463154	eh ah
-1.2298133	n ah
-1.594306	iy ah
-2.530092	ih ah
-1.1990005	th ah
-1.7395414	ay ah
-1.0337096	m ah
-2.73329	ae ah
-1.0446876	v ah
-1.4479667	ng ah
-1.0640095	k ah
-1.4951932	uw ah
-1.0967151	sh ah
-1.9556247	uh ah
-1.5734879	hh ah
-1.109822	s ah
-1.0953492	l ah
-1.3121055	g ah
-2.4791203	aa ah
-0.9702593	d ah
-1.0333226	b ah
-1.6783898	ow ah
-1.1924932	p ah
-1.6406295	er ah
-1.3722388	y ah
-0.9865376	z ah
-2.0457745	ey ah
-1.0860723	jh ah
-1.2849237	aw ah
-1.2166644	ch ah
-0.9313884	err ah
-0.91981953	zh ah
-2.2738647	oy ah
-1.6301455	<s> t
-1.3278414	f t
-1.6691265	ao t
-1.795423	r t
-3.6047578	dh t
-1.3653475	ah t
-2.0569196	t t
-3.1171515	w t
-1.3631519	eh t
-1.1081434	n t
-1.3847575	iy t
-1.4075147	ih t
-1.6779474	th t
-1.3565152	ay t
-1.7464688	m t
-1.1350973	ae t
-1.6560352	v t
-1.3813031	ng t
-1.9450966	k t
-1.1230242	uw t
-1.6536846	sh t
-1.3144964	uh t
-0.8436652	s t
-1.6832262	l t
-3.0729082	g t
-1.4137415	aa t
-2.184657	d t
-2.7308733	b t
-1.4591539	ow t
-1.8597734	p t
-1.5692675	er t
-1.507719	z t
-1.3515246	ey t
-1.8493984	jh t
-1.0296236	aw t
-1.4955839	ch t
-1.4159925	err t
-1.4156874	zh t
-2.4737222	oy t
-1.2681457	<s> w
-2.3508615	f w
-2.0863771	ao w
-1.8792889	r w
-3.6272771	dh w
-1.5288719	ah w
-1.56535	t w
-2.75679	w w
-1.9213481	eh w
-1.7988223	n w
-1.1209841	iy w
-1.8568532	ih w
-1.8541349	th w
-1.6929266	ay w
-1.8937896	m w
-2.241769	ae w
-1.8936057	v w
-1.4246497	ng w
-1.3713555	k w
-1.4361775	uw w
-0.77033603	sh w
-2.1213593	uh w
-1.6849403	hh w
-1.519611	s w
-1.8719774	l w
-1.9624008	g w
-2.3125777	aa w
-1.7541164	d w
-2.4834101	b w
-1.5080929	ow w
-2.032446	p w
-1.5995373	er w
-1.3871952	z w
-1.7332693	ey w
-2.2247043	jh w
-1.5747998	aw w
-1.7541759	ch w
-1.8504292	err w
-1.7264432	zh w
-2.7805028	oy w
-1.9133096	<s> eh
-1.4816463	f eh
-2.6875951	ao eh
-1.2553785	r eh
-1.2644982	dh eh
-2.6218624	ah eh
-1.3082612	t eh
-1.2425137	w eh
-3.0115209	eh eh
-1.6595292	n eh
-1.7306665	iy eh
-2.5509093	ih eh
-1.6930956	th eh
-1.9467759	ay eh
-1.3379188	m eh
-3.2580993	ae eh
-1.310011	v eh
-1.9114035	ng eh
-1.0878711	k eh
-1.9591639	uw eh
-1.7593989	sh eh
-2.7501893	uh eh
-1.0046841	hh eh
-1.3879899	s eh
-1.4388301	l eh
-1.3960845	g eh
-3.1051857	aa eh
-1.3882823	d eh
-1.3738304	b eh
-2.3706217	ow eh
-1.3189116	p eh
-2.0350256	er eh
-1.4959414	y eh
-1.6813242	z eh
-2.0825183	ey eh
-1.1350813	jh eh
-1.9281166	aw eh
-1.5038018	ch eh
-1.5205942	err eh
-1.8783038	zh eh
-2.0872529	oy eh
-1.7786113	<s> n
-2.2047796	f n
-1.2627411	ao n
-1.7609318	r n
-2.411079	dh n
-0.7881568	ah n
-2.2225707	t n
-2.8996518	w n
-0.7223272	eh n
-2.4185958	n n
-1.4088969	iy n
-0.6582343	ih n
-1.9055629	th n
-1.1309626	ay n
-2.003606	m n
-0.7639526	ae n
-1.6158574	v n
-1.9886129	ng n
-1.9545374	k n
-1.1243123	uw n
-1.1524955	sh n
-1.4400011	uh n
-3.457701	hh n
-1.8099514	s n
-2.2197845	l n
-2.1161258	g n
-1.0382011	aa n
-1.9364781	d n
-3.16357	b n
-0.59451514	ow n
-2.4365516	p n
-1.4668369	er n
-1.4152222	z n
-0.9435466	ey n
-1.6502941	jh n
-0.67626876	aw n
-1.8634007	ch n
-1.4132706	err n
-1.2792057	zh n
-1.0940336	oy n
-1.9851431	<s> iy
-1.4373003	f iy
-2.7785928	ao iy
-0.69943213	r iy
-0.97685826	dh iy
-3.6795049	ah iy
-1.3479465	t iy
-1.1664646	w iy
-3.54885	eh iy
-1.4160597	n iy
-2.3419735	iy iy
-2.9387875	ih iy
-1.1888143	th iy
-2.0580018	ay iy
-0.9359543	m iy
-1.4136783	v iy
-1.872217	ng iy
-1.7549318	k iy
-2.113466	uw iy
-0.62993646	sh iy
-0.7434398	hh iy
-1.2251394	s iy
-0.79833907	l iy
-2.2100947	g iy
-2.936114	aa iy
-1.3262353	d iy
-0.87383324	b iy
-2.623321	ow iy
-1.403016	p iy
-1.5495652	er iy
-1.7739028	y iy
-1.3286335	z iy
-2.2733097	ey iy
-1.4636227	jh iy
-2.1373293	aw iy
-1.2561402	ch iy
-1.3272831	err iy
-1.9901526	zh iy
-2.1445384	oy iy
-1.3032929	<s> ih
-0.9808343	f ih
-2.1496177	ao ih
-0.9672946	r ih
-0.5128342	dh ih
-2.446061	ah ih
-0.7578485	t ih
-0.7973673	w ih
-2.7071855	eh ih
-1.1106383	n ih
-1.0486348	iy ih
-2.2327995	ih ih
-0.64940584	th ih
-1.438672	ay ih
-0.93693143	m ih
-2.5228631	ae ih
-0.92948127	v ih
-1.1233019	ng ih
-1.0703304	k ih
-1.1682012	uw ih
-0.84730077	sh ih
-2.2328944	uh ih
-0.7911217	hh ih
-1.0005486	s ih
-1.0140868	l ih
-1.2624006	g ih
-2.5954053	aa ih
-0.81633234	d ih
-0.9302389	b ih
-1.6266633	ow ih
-1.0752897	p ih
-1.3495369	er ih
-0.5509562	y ih
-0.85891974	z ih
-1.5531155	ey ih
-0.7192313	jh ih
-1.7510669	aw ih
-0.85075706	ch ih
-1.4105656	err ih
-0.9975829	zh ih
-1.4236162	oy ih
-2.684663	<s> th
-2.3536007	f th
-2.0319011	ao th
-2.5252733	r th
-1.936994	ah th
-3.289967	t th
-3.5018964	w th
-2.533182	eh th
-2.41224	n th
-2.292319	iy th
-1.8822078	ih th
-2.4268072	th th
-2.3175545	ay th
-2.3121848	m th
-2.2113225	ae th
-3.259329	v th
-2.1519237	ng th
-2.563302	k th
-1.8618876	uw th
-2.6254692	sh th
-2.3133116	uh th
-2.503453	s th
-2.302346	l th
-2.8497725	g th
-2.6743584	aa th
-3.213347	d th
-3.0483828	b th
-1.813735	ow th
-2.832064	p th
-2.0871525	er th
-2.4552202	z th
-2.218958	ey th
-2.4308305	jh th
-2.1877549	aw th
-2.2378926	ch th
-1.8732942	err th
-2.76793	oy th
-1.5973579	<s> ay
-1.3492032	f ay
-3.1487217	ao ay
-1.4897766	r ay
-2.7608619	dh ay
-3.0802655	ah ay
-1.5656195	t ay
-1.380456	w ay
-1.8869122	n ay
-2.4177265	iy ay
-3.5673525	ih ay
-2.5330317	th ay
-2.3184316	ay ay
-1.3107861	m ay
-3.5787084	ae ay
-1.6312449	v ay
-3.0861914	ng ay
-2.3616154	k ay
-2.4046037	uw ay
-2.2541595	sh ay
-1.5631751	hh ay
-1.7589061	s ay
-1.027898	l ay
-2.3913398	g ay
-2.8170216	aa ay
-1.896652	d ay
-1.1110076	b ay
-2.2369256	ow ay
-1.6977984	p ay
-2.1740496	er ay
-2.1247747	z ay
-2.3175445	ey ay
-1.9892172	jh ay
-1.9333605	aw ay
-1.5148523	ch ay
-1.8811915	err ay
-1.6300583	<s> m
-1.9798863	f m
-1.8664036	ao m
-1.6387714	r m
-3.1627767	dh m
-1.0267738	ah m
-2.254812	t m
-1.3716738	eh m
-1.7243899	n m
-1.489661	iy m
-1.3726541	ih m
-1.9963121	th m
-1.2795238	ay m
-2.233496	m m
-1.394768	ae m
-1.6664066	v m
-1.7496682	ng m
-1.6735961	k m
-1.1742758	uw m
-2.0676222	sh m
-1.4838166	uh m
-3.1220381	hh m
-1.2389733	s m
-1.8423973	l m
-2.631788	g m
-1.2854267	aa m
-2.4232745	d m
-2.9360075	b m
-1.5155797	ow m
-2.553611	p m
-1.4470321	er m
-3.3759193	y m
-1.5189636	z m
-1.1856997	ey m
-1.7863613	jh m
-1.716798	aw m
-2.0396726	ch m
-1.8504292	err m
-1.5222769	zh m
-1.7767096	oy m
-1.7983768	<s> ae
-1.6520206	f ae
-2.7307148	ao ae
-1.067777	r ae
-1.0176581	dh ae
-2.6914275	ah ae
-1.5168482	t ae
-2.5382323	w ae
-3.3941991	eh ae
-1.3067303	n ae
-1.6831517	iy ae
-2.77997	ih ae
-1.4359524	th ae
-1.9213502	ay ae
-1.4777269	m ae
-3.395056	ae ae
-1.5537173	v ae
-2.005713	ng ae
-1.331244	k ae
-2.0517378	uw ae
-1.9005578	sh ae
-2.4939463	uh ae
-0.6161235	hh ae
-1.9526792	s ae
-1.5286413	l ae
-1.4363581	g ae
-3.1096735	aa ae
-1.5842608	d ae
-1.3480119	b ae
-2.1447062	ow ae
-1.5481669	p ae
-2.1307552	er ae
-2.4130557	y ae
-1.8176647	z ae
-1.9808809	ey ae
-1.6949954	jh ae
-2.2341385	aw ae
-1.4372061	ch ae
-2.1245687	zh ae
-2.0888076	oy ae
-2.3552992	<s> v
-2.8825545	f v
-2.0976148	ao v
-2.488445	r v
-3.6203516	dh v
-1.1486449	ah v
-2.9371247	t v
-3.0381343	w v
-1.207824	eh v
-2.231167	n v
-1.6527395	iy v
-1.5796	ih v
-2.0356688	th v
-1.5550998	ay v
-2.7574062	m v
-1.543442	ae v
-1.9740657	ng v
-3.2120678	k v
-1.5390637	uw v
-2.7367237	sh v
-2.1802757	uh v
-2.8051198	s v
-2.2205913	l v
-3.2055426	g v
-1.933132	aa v
-2.4875333	d v
-3.1815886	b v
-1.2777276	ow v
-1.7567264	er v
-3.3439448	y v
-2.1337464	z v
-1.5810423	ey v
-2.5001469	jh v
-2.8450725	aw v
-2.2899125	ch v
-1.8346713	err v
-2.3079197	zh v
-1.5526823	ao ng
-3.424358	dh ng
-1.9104162	ah ng
-3.776531	t ng
-2.3033934	eh ng
-1.5702173	iy ng
-1.1370963	ih ng
-2.9130564	th ng
-2.6246643	ay ng
-1.7546338	ae ng
-3.2510357	ng ng
-3.178308	k ng
-2.5413883	uw ng
-3.4088728	sh ng
-3.7587152	s ng
-3.8470569	l ng
-2.3432531	aa ng
-2.5635023	ow ng
-3.5781462	er ng
-3.584537	z ng
-2.2289262	ey ng
-2.9436998	aw ng
-2.415187	oy ng
-1.5414667	<s> k
-1.9447765	f k
-1.8434594	ao k
-1.2499652	r k
-3.483834	dh k
-1.444955	ah k
-2.0676613	t k
-3.3601177	w k
-1.3265231	eh k
-1.7901602	n k
-1.4459941	iy k
-1.1003995	ih k
-1.5524825	th k
-0.98333806	ay k
-2.041128	m k
-1.4204017	ae k
-1.650832	v k
-1.0147748	ng k
-2.6998475	k k
-1.4738293	uw k
-2.4956927	sh k
-0.8153	uh k
-1.2486804	s k
-1.9824206	l k
-2.693041	g k
-1.366002	aa k
-2.002877	d k
-3.1694934	b k
-1.3974371	ow k
-2.7163088	p k
-1.4891748	er k
-1.4988544	z k
-1.2337075	ey k
-1.922386	jh k
-1.6002153	aw k
-1.6545311	ch k
-1.5275985	err k
-1.8845148	zh k
-2.618498	oy k
-3.669414	<s> uw
-1.891088	f uw
-1.5155177	r uw
-2.7363393	dh uw
-1.0423481	t uw
-2.3641953	w uw
-2.011712	n uw
-3.5244212	iy uw
-3.9039185	ih uw
-2.0070674	th uw
-3.209503	ay uw
-1.7676836	m uw
-3.4431543	ae uw
-2.4390051	v uw
-1.9098284	k uw
-2.805052	uw uw
-1.7686458	sh uw
-1.6245109	hh uw
-1.2523267	s uw
-1.8842454	l uw
-2.0439036	g uw
-3.4459965	aa uw
-1.6530763	d uw
-2.1858072	b uw
-2.2241397	p uw
-3.6669598	er uw
-0.4478796	y uw
-2.3230124	z uw
-1.3722098	jh uw
-1.3549776	ch uw
-1.8720331	err uw
-1.0265089	zh uw
-0.9879544	<s> sh
-2.3750498	f sh
-1.2872602	ao sh
-2.1984785	r sh
-3.6437166	dh sh
-2.0145175	ah sh
-2.5255663	t sh
-1.6278888	eh sh
-2.0793695	n sh
-2.0300574	iy sh
-1.6539207	ih sh
-2.072573	th sh
-2.2770479	ay sh
-2.693448	m sh
-1.7670755	ae sh
-2.536414	v sh
-2.0630271	ng sh
-2.0235631	k sh
-1.787296	uw sh
-3.1113658	sh sh
-1.7457856	uh sh
-2.5030031	s sh
-2.7039773	l sh
-2.6361248	g sh
-1.1375266	aa sh
-2.39636	d sh
-3.2939582	b sh
-1.6846225	ow sh
-2.3898964	p sh
-2.1053839	er sh
-2.4543846	z sh
-1.0295645	ey sh
-2.3166144	jh sh
-2.1390202	aw sh
-2.042246	ch sh
-1.8655381	err sh
-2.2661111	zh sh
-1.9243901	oy sh
-1.8771988	f uh
-2.7021258	r uh
-2.7394612	dh uh
-3.8788927	ah uh
-2.1743362	t uh
-1.4551818	w uh
-3.6039376	eh uh
-3.3715675	n uh
-3.2777233	iy uh
-2.8518105	th uh
-3.2103393	m uh
-3.0247748	v uh
-1.8973768	k uh
-3.3505573	uw uh
-1.5173295	sh uh
-2.84633	uh uh
-2.093128	hh uh
-2.6853023	s uh
-2.006144	l uh
-1.6876422	g uh
-3.306965	aa uh
-2.6563923	d uh
-1.8449975	b uh
-1.8907616	p uh
-1.4969254	y uh
-3.2449129	z uh
-1.8915458	jh uh
-2.2062497	ch uh
-1.9169767	zh uh
-1.001709	<s> hh
-2.290977	f hh
-2.2834587	ao hh
-2.2774239	r hh
-3.1655536	dh hh
-1.8382754	ah hh
-1.6825204	t hh
-2.9622784	w hh
-2.2959278	eh hh
-1.6299338	n hh
-1.186576	iy hh
-2.098863	ih hh
-1.646768	th hh
-1.7345401	ay hh
-1.9128772	m hh
-2.7357774	ae hh
-1.6720291	v hh
-1.3939092	ng hh
-2.1117294	k hh
-1.5318123	uw hh
-2.7315469	sh hh
-2.1230521	uh hh
-3.465046	hh hh
-1.8611885	s hh
-2.0398893	l hh
-2.4935594	g hh
-2.4327855	aa hh
-1.5598676	d hh
-2.7899354	b hh
-1.844151	ow hh
-2.0866823	p hh
-1.696035	er hh
-1.4356763	z hh
-1.9334087	ey hh
-1.9865041	jh hh
-1.8547862	aw hh
-2.0108721	ch hh
-1.4159925	err hh
-2.291645	zh hh
-1.4838369	<s> s
-1.7599169	f s
-1.4624598	ao s
-1.6098105	r s
-2.8194916	dh s
-1.0267738	ah s
-1.3552241	t s
-2.6494708	w s
-1.1349859	eh s
-1.0826263	n s
-1.0330528	iy s
-1.0118234	ih s
-1.67731	th s
-1.1795832	ay s
-1.5509255	m s
-0.85269594	ae s
-1.5104532	v s
-1.2816715	ng s
-0.85261655	k s
-1.2838248	uw s
-2.342646	sh s
-1.400204	uh s
-3.4195347	hh s
-2.0804737	s s
-1.518659	l s
-2.053755	g s
-1.2887046	aa s
-1.7998786	d s
-2.3063192	b s
-1.118434	ow s
-1.5350975	p s
-1.2116	er s
-1.9261354	z s
-1.0194106	ey s
-2.3127754	jh s
-1.211041	aw s
-1.8053637	ch s
-1.1890985	err s
-1.9861816	zh s
-1.0838811	oy s
-2.000562	<s> l
-1.2063718	f l
-0.6532881	ao l
-1.8024365	r l
-2.0194378	dh l
-1.0678267	ah l
-1.8028684	t l
-1.8332863	w l
-0.971572	eh l
-1.588775	n l
-1.622412	iy l
-1.4741536	ih l
-1.7464533	th l
-1.3049332	ay l
-1.8755057	m l
-1.3027437	ae l
-1.3844732	v l
-1.6389424	ng l
-1.0204598	k l
-1.4501039	uw l
-1.721062	sh l
-1.0568477	uh l
-3.450478	hh l
-1.6008759	s l
-2.3830674	l l
-0.71455735	g l
-1.1624774	aa l
-1.7665746	d l
-0.918173	b l
-1.0525181	ow l
-0.88275456	p l
-1.527234	er l
-2.4992242	y l
-1.7699176	z l
-1.3884797	ey l
-2.185144	jh l
-1.517701	aw l
-1.7077924	ch l
-1.8430674	err l
-1.6108027	zh l
-0.26639095	oy l
-1.9049431	<s> g
-2.75084	f g
-2.048939	ao g
-2.2631798	r g
-3.6047578	dh g
-1.8039951	ah g
-2.5572982	t g
-2.9622784	w g
-2.0383353	eh g
-1.4831269	n g
-1.9162855	iy g
-1.6944631	ih g
-2.5195346	th g
-1.9217023	ay g
-2.3111804	m g
-1.0851567	ae g
-2.2533562	v g
-0.75174475	ng g
-3.4259505	k g
-1.9985754	uw g
-2.7315469	sh g
-2.0326948	uh g
-2.2998264	s g
-2.1513565	l g
-3.2190793	g g
-2.2196922	aa g
-2.38241	d g
-3.3154526	b g
-2.196588	ow g
-2.826993	p g
-2.0408819	er g
-1.750241	z g
-1.9712805	ey g
-2.226267	jh g
-1.8547862	aw g
-1.824642	ch g
-1.8579179	err g
-2.291645	zh g
-2.2064424	oy g
-1.936018	<s> aa
-1.5621215	f aa
-2.8861086	ao aa
-1.4490457	r aa
-2.498782	dh aa
-2.5741332	ah aa
-1.6735646	t aa
-0.96428126	w aa
-3.1637099	eh aa
-1.6557587	n aa
-1.9873602	iy aa
-3.293367	ih aa
-2.3356845	th aa
-2.2392666	ay aa
-1.7238898	m aa
-1.8936057	v aa
-1.8009413	ng aa
-1.3612859	k aa
-1.7993358	uw aa
-1.9292198	sh aa
-2.631604	uh aa
-1.3358415	hh aa
-2.0804737	s aa
-1.6386651	l aa
-1.4059045	g aa
-2.8079195	aa aa
-1.0398732	d aa
-1.3389592	b aa
-2.214295	ow aa
-1.2291546	p aa
-1.9144298	er aa
-1.7922239	y aa
-1.7309439	z aa
-2.2346241	ey aa
-1.6002002	jh aa
-2.8199804	aw aa
-1.2715373	ch aa
-1.8137057	err aa
-2.2513049	zh aa
-2.7461677	oy aa
-0.8948816	<s> d
-2.0291605	f d
-1.9819049	ao d
-1.7544609	r d
-3.6354191	dh d
-1.5435685	ah d
-1.949388	t d
-2.6198924	w d
-1.3864114	eh d
-1.0960791	n d
-1.5944266	iy d
-1.5147637	ih d
-1.517599	th d
-1.3173971	ay d
-1.7399354	m d
-1.2013674	ae d
-1.566484	v d
-1.4681212	ng d
-2.5061018	k d
-1.5458206	uw d
-2.1756494	sh d
-0.80071247	uh d
-1.9273393	s d
-1.5224295	l d
-2.8427022	g d
-1.7660742	aa d
-2.0197024	d d
-2.3745542	b d
-1.6733887	ow d
-2.5225065	p d
-1.0115583	er d
-1.4356763	z d
-1.3965179	ey d
-1.6402084	jh d
-1.367302	aw d
-1.708989	ch d
-1.1907208	err d
-1.4156874	zh d
-1.7088532	oy d
-1.4679812	<s> b
-2.479402	f b
-2.0319011	ao b
-2.1529157	r b
-2.8588898	dh b
-1.2786295	ah b
-2.151882	t b
-2.0665438	eh b
-1.7800472	n b
-1.7908651	iy b
-1.7560992	ih b
-1.78934	th b
-1.683779	ay b
-1.4979092	m b
-1.9625931	ae b
-1.876978	v b
-1.8132812	ng b
-2.6757329	k b
-1.5185313	uw b
-2.2329578	sh b
-1.3229088	uh b
-1.8295361	s b
-1.9863379	l b
-1.5553685	aa b
-1.8795831	d b
-3.3324752	b b
-1.6037203	ow b
-2.983068	p b
-1.6077267	er b
-1.3891103	z b
-1.4872196	ey b
-1.9044474	jh b
-2.1407177	aw b
-1.9097488	ch b
-1.8346713	err b
-2.3079197	zh b
-1.7789928	oy b
-2.2110908	<s> ow
-2.018933	f ow
-2.956326	ao ow
-1.5409291	r ow
-1.8560601	dh ow
-2.9786017	ah ow
-2.0622573	t ow
-2.3139706	w ow
-3.518829	eh ow
-1.620467	n ow
-1.9278629	iy ow
-3.0356443	ih ow
-2.7950232	th ow
-2.3828413	ay ow
-1.5489191	m ow
-2.0840142	v ow
-2.8152142	ng ow
-1.7110286	k ow
-2.113466	uw ow
-1.8247464	sh ow
-2.7648063	uh ow
-1.5847342	hh ow
-1.8404517	s ow
-1.4797965	l ow
-1.294253	g ow
-2.6710596	aa ow
-1.0520478	d ow
-1.4777441	b ow
-2.4632437	ow ow
-1.5132542	p ow
-2.5124779	er ow
-2.3090026	y ow
-2.1622555	z ow
-2.1237903	ey ow
-2.2682323	jh ow
-1.9889115	aw ow
-1.824642	ch ow
-2.291645	zh ow
-2.2064424	oy ow
-1.688851	<s> p
-2.3740885	f p
-2.048939	ao p
-2.256229	r p
-3.0961976	dh p
-1.3327082	ah p
-2.480546	t p
-3.5190687	w p
-1.970259	eh p
-1.9020259	n p
-1.5288546	iy p
-1.724143	ih p
-1.7479498	th p
-1.9134257	ay p
-1.2426474	m p
-1.7120504	ae p
-1.7362959	v p
-1.812403	ng p
-3.2045424	k p
-1.6027863	uw p
-2.3701358	sh p
-1.7245344	uh p
-1.3294744	s p
-1.986024	l p
-3.0729082	g p
-1.366002	aa p
-2.2775202	d p
-3.2860866	b p
-1.4865255	ow p
-2.895098	p p
-1.696035	er p
-1.5806875	z p
-1.5572158	ey p
-1.9029573	jh p
-1.7905457	aw p
-2.2338612	ch p
-1.8579179	err p
-1.8845148	zh p
-1.5814226	oy p
-3.3179512	<s> er
-0.9220387	f er
-1.8429958	ao er
-1.9653091	r er
-0.8672288	dh er
-3.0725706	ah er
-1.2970517	t er
-1.1855687	w er
-1.6771541	eh er
-1.718419	n er
-1.980537	iy er
-1.4566417	ih er
-1.2098653	th er
-1.4251465	ay er
-1.6188236	m er
-2.8068712	ae er
-0.89457214	v er
-2.005029	ng er
-1.5078117	k er
-2.0746562	uw er
-1.5553144	sh er
-2.072498	uh er
-1.2348565	hh er
-1.7059251	s er
-1.7306108	l er
-1.3960845	g er
-2.191403	aa er
-1.5862768	d er
-1.3322047	b er
-2.144029	ow er
-0.95090115	p er
-2.1509573	er er
-0.72757983	y er
-1.5966451	z er
-2.1668952	ey er
-0.7167492	jh er
-1.0505677	aw er
-0.98107404	ch er
-1.8069361	err er
-0.7326754	zh er
-1.8880057	oy er
-1.7074785	<s> y
-1.692976	f y
-2.2247772	ao y
-2.5499554	r y
-3.3459437	dh y
-2.874869	ah y
-2.3800159	t y
-3.4792852	w y
-2.1029596	eh y
-1.910975	n y
-2.148404	iy y
-2.450137	ih y
-1.9963121	th y
-2.1187613	ay y
-1.9861133	m y
-1.8212645	ae y
-1.717551	v y
-1.871714	ng y
-1.5736579	k y
-1.7342746	uw y
-2.4942005	sh y
-2.7574363	uh y
-2.055265	hh y
-2.4442017	s y
-1.2443807	l y
-2.039468	g y
-2.6694195	aa y
-1.4438574	d y
-1.8278683	b y
-2.8759081	ow y
-1.852761	p y
-2.2622964	er y
-2.0394638	z y
-2.0830328	ey y
-1.7863613	jh y
-2.7905025	aw y
-1.884608	ch y
-1.8504292	err y
-1.4833522	zh y
-2.0888076	oy y
-2.6338909	<s> z
-3.3200471	f z
-1.619207	ao z
-2.3480263	r z
-3.6047578	dh z
-1.3878103	ah z
-3.2017064	t z
-3.2218606	w z
-1.7202842	eh z
-1.5095085	n z
-1.3164998	iy z
-1.1363596	ih z
-2.2702732	th z
-1.1966213	ay z
-1.5681341	m z
-1.6169226	ae z
-1.6306217	v z
-1.5832888	ng z
-3.0006707	k z
-1.2089747	uw z
-2.7315469	sh z
-1.5329893	uh z
-3.426257	hh z
-3.0836685	s z
-1.6387357	l z
-1.525707	g z
-1.9472686	aa z
-1.971064	d z
-2.0718806	b z
-1.2261424	ow z
-3.3487618	p z
-1.23731	er z
-3.3821762	y z
-2.6201205	z z
-1.5068686	ey z
-1.654884	aw z
-2.2853708	ch z
-1.6781927	err z
-1.3824255	oy z
-2.0835857	<s> ey
-1.3532751	f ey
-2.690847	ao ey
-1.4199878	r ey
-1.5365757	dh ey
-3.200772	ah ey
-1.5138593	t ey
-1.3718364	w ey
-3.518829	eh ey
-2.0627108	n ey
-2.217147	iy ey
-3.2950644	ih ey
-2.1593018	th ey
-2.1464903	ay ey
-1.2552077	m ey
-1.5416533	v ey
-2.6339433	ng ey
-1.5798762	k ey
-2.0409577	uw ey
-1.9009376	sh ey
-2.7648063	uh ey
-2.1828887	hh ey
-2.0431895	s ey
-1.492385	l ey
-1.585634	g ey
-3.3541007	aa ey
-1.4469686	d ey
-1.821286	b ey
-2.4309986	ow ey
-1.4559858	p ey
-1.9801927	er ey
-2.8530235	y ey
-1.7348627	z ey
-2.2175524	ey ey
-2.0351963	jh ey
-1.9889115	aw ey
-1.1769089	ch ey
-2.2586448	zh ey
-2.2064424	oy ey
-2.0293639	<s> jh
-3.346257	f jh
-2.6573446	ao jh
-2.0432243	r jh
-3.6608028	dh jh
-2.0508993	ah jh
-1.6413128	eh jh
-1.8359718	n jh
-2.3746288	iy jh
-1.8374138	ih jh
-2.3474462	th jh
-2.6906595	ay jh
-2.615841	m jh
-1.5139452	ae jh
-2.6283102	v jh
-2.106498	ng jh
-1.9520024	uw jh
-3.273298	sh jh
-1.9975035	uh jh
-2.9248037	s jh
-2.8126504	l jh
-3.0911598	g jh
-1.6578965	aa jh
-2.865934	d jh
-2.6376967	b jh
-2.9910827	ow jh
-3.3746617	p jh
-2.0415847	er jh
-2.2060976	z jh
-1.6703483	ey jh
-2.3204875	jh jh
-2.6973794	aw jh
-2.1932662	ch jh
-1.8418909	err jh
-2.002288	zh jh
-2.7754333	oy jh
-2.7410378	<s> aw
-2.1490839	f aw
-2.5893972	ao aw
-2.1319196	r aw
-2.4548843	dh aw
-3.0802655	ah aw
-2.5944028	t aw
-2.8535352	w aw
-3.574435	eh aw
-1.9348654	n aw
-2.5941534	iy aw
-4.021977	ih aw
-1.6639271	th aw
-3.3299816	ay aw
-2.5279176	m aw
-2.403407	v aw
-2.8286648	ng aw
-1.9602913	k aw
-2.1714947	uw aw
-2.4018867	sh aw
-2.787698	uh aw
-1.4538506	hh aw
-2.6652424	s aw
-1.9550588	l aw
-2.587756	g aw
-3.3785348	aa aw
-1.8253099	d aw
-1.741487	b aw
-2.1810462	ow aw
-1.7914786	p aw
-2.2207234	er aw
-3.401507	y aw
-2.6866376	z aw
-2.7228444	ey aw
-2.9470356	jh aw
-2.2922013	ch aw
-2.2883031	<s> ch
-2.757753	f ch
-2.5040195	ao ch
-2.4773178	r ch
-3.6608028	dh ch
-1.8003789	ah ch
-2.0597208	eh ch
-2.1296	n ch
-1.7700689	iy ch
-2.0561728	ih ch
-2.3474462	th ch
-2.6906595	ay ch
-2.6675258	m ch
-2.080814	ae ch
-2.581787	v ch
-2.4602427	ng ch
-3.0077257	k ch
-2.2540236	uw ch
-2.0307176	sh ch
-1.928125	uh ch
-2.4280088	s ch
-2.6198194	l ch
-3.2137046	g ch
-1.9713393	aa ch
-3.598433	d ch
-3.3101432	b ch
-2.0341609	ow ch
-2.9866939	p ch
-1.7800341	er ch
-2.5954967	z ch
-1.9626673	ey ch
-2.1923249	jh ch
-2.3731968	aw ch
-1.808366	ch ch
-1.8418909	err ch
-2.3162918	zh ch
-3.6009996	<s> err
-3.0677547	f err
-3.1487217	ao err
-3.7166498	r err
-3.6608028	dh err
-2.954012	ah err
-3.653404	t err
-3.040802	w err
-2.8630877	eh err
-3.8748922	n err
-3.5043497	iy err
-3.5673525	ih err
-2.7898104	th err
-3.3299816	ay err
-3.5342667	m err
-3.279372	ae err
-3.1210334	v err
-3.5901062	k err
-3.3156154	uw err
-3.243138	sh err
-2.6540527	uh err
-2.7888534	hh err
-3.287527	s err
-3.7486415	l err
-3.027145	aa err
-3.5684514	d err
-3.3412433	b err
-3.1217694	ow err
-3.343922	p err
-3.4842174	er err
-3.4879546	z err
-3.2906942	ey err
-2.8219917	aw err
-2.8542638	ch err
-1.8418909	err err
-2.7754333	oy err
-3.193067	ao zh
-3.1273305	r zh
-2.8876336	ah zh
-3.5871012	w zh
-2.1655424	eh zh
-2.8007834	n zh
-2.936121	iy zh
-2.5926886	ih zh
-3.3836963	ay zh
-3.6171687	m zh
-2.555608	ae zh
-2.7018964	v zh
-3.0235116	ng zh
-3.6804574	k zh
-2.2430768	uw zh
-2.709255	uh zh
-3.8637562	s zh
-3.3248656	l zh
-2.5567627	g zh
-2.421404	aa zh
-3.51133	d zh
-3.3915193	b zh
-2.205852	ow zh
-2.5919585	er zh
-3.5777981	z zh
-2.2829897	ey zh
-2.9410398	aw zh
-3.6622877	<s> oy
-3.10229	f oy
-2.416372	r oy
-3.6890116	dh oy
-2.7299914	ah oy
-3.0965865	t oy
-2.6954734	w oy
-1.4742019	n oy
-3.033253	iy oy
-3.5186522	ih oy
-2.821074	ay oy
-2.6484842	m oy
-1.9164721	v oy
-3.1480722	ng oy
-2.3653808	k oy
-2.8135426	uw oy
-3.5462627	hh oy
-2.7917979	s oy
-2.513985	l oy
-2.791559	g oy
-3.6314557	d oy
-1.9149818	b oy
-2.8318102	ow oy
-1.7931076	p oy
-3.0105035	er oy
-1.4393797	jh oy
-2.3940234	aw oy
-2.2062497	ch oy
-1.6870332	zh oy

\end\
